Language model created by QuickLM on Mon Jul 30 09:01:13 EDT 2018
Copyright (c) 1996-2010 Carnegie Mellon University and Alexander I. Rudnicky

The model is in standard ARPA format, designed by Doug Paul while he was at MITRE.

The code that was used to produce this language model is available in Open Source.
Please visit http://www.speech.cs.cmu.edu/tools/ for more information

The (fixed) discount mass is 0.5. The backoffs are computed using the ratio method.
This model based on a corpus of 9 sentences and 12 words

\data\
ngram 1=12
ngram 2=19
ngram 3=19

\1-grams:
-0.9266 </s> -0.3010
-0.9266 <s> -0.2463
-1.5798 BROWSER -0.2463
-1.8808 CALCULATOR -0.2463
-1.5798 CLOSE -0.2775
-1.5798 FILE -0.2894
-1.8808 MAIL -0.2463
-1.5798 MANAGER -0.2463
-1.8808 NOTEPAD -0.2463
-1.0357 OPEN -0.2463
-1.8808 SEARCH -0.2463
-1.8808 TERMINAL -0.2463

\2-grams:
-0.9542 <s> CLOSE 0.0000
-0.4102 <s> OPEN -0.0000
-0.3010 BROWSER </s> -0.3010
-0.3010 CALCULATOR </s> -0.3010
-0.6021 CLOSE BROWSER 0.0000
-0.6021 CLOSE FILE 0.0000
-0.3010 FILE MANAGER 0.0000
-0.3010 MAIL </s> -0.3010
-0.3010 MANAGER </s> -0.3010
-0.3010 NOTEPAD </s> -0.3010
-1.1461 OPEN BROWSER 0.0000
-1.1461 OPEN CALCULATOR 0.0000
-1.1461 OPEN FILE 0.0000
-1.1461 OPEN MAIL 0.0000
-1.1461 OPEN NOTEPAD 0.0000
-1.1461 OPEN SEARCH 0.0000
-1.1461 OPEN TERMINAL 0.0000
-0.3010 SEARCH </s> -0.3010
-0.3010 TERMINAL </s> -0.3010

\3-grams:
-0.6021 <s> CLOSE BROWSER
-0.6021 <s> CLOSE FILE
-1.1461 <s> OPEN BROWSER
-1.1461 <s> OPEN CALCULATOR
-1.1461 <s> OPEN FILE
-1.1461 <s> OPEN MAIL
-1.1461 <s> OPEN NOTEPAD
-1.1461 <s> OPEN SEARCH
-1.1461 <s> OPEN TERMINAL
-0.3010 CLOSE BROWSER </s>
-0.3010 CLOSE FILE MANAGER
-0.3010 FILE MANAGER </s>
-0.3010 OPEN BROWSER </s>
-0.3010 OPEN CALCULATOR </s>
-0.3010 OPEN FILE MANAGER
-0.3010 OPEN MAIL </s>
-0.3010 OPEN NOTEPAD </s>
-0.3010 OPEN SEARCH </s>
-0.3010 OPEN TERMINAL </s>

\end\
